Language model created by QuickLM on Fri Dec 15 05:41:00 EST 2017
Copyright (c) 1996-2010 Carnegie Mellon University and Alexander I. Rudnicky

The model is in standard ARPA format, designed by Doug Paul while he was at MITRE.

The code that was used to produce this language model is available in Open Source.
Please visit http://www.speech.cs.cmu.edu/tools/ for more information

The (fixed) discount mass is 0.5. The backoffs are computed using the ratio method.
This model based on a corpus of 14 sentences and 26 words

\data\
ngram 1=26
ngram 2=38
ngram 3=34

\1-grams:
-0.9473 </s> -0.3010
-0.9473 <s> -0.2490
-2.0934 AND -0.2975
-2.0934 BATTERY -0.2975
-2.0934 BITCOIN -0.2975
-2.0934 BROWSER -0.2490
-2.0934 CURENCY -0.2490
-2.0934 DATE -0.2975
-2.0934 EMAIL -0.2490
-2.0934 FILE -0.2975
-1.7924 GOOGLE -0.2490
-2.0934 IMAGE -0.2490
-2.0934 MANAGER -0.2490
-2.0934 MUSIC -0.2975
-1.2483 OPEN -0.2721
-2.0934 PLAY -0.2975
-2.0934 PLAYER -0.2490
-2.0934 SEARCH -0.2940
-1.4914 SHOW -0.2868
-2.0934 STATUS -0.2490
-2.0934 TELL -0.2975
-2.0934 TIME -0.2490
-2.0934 VALUE -0.2490
-2.0934 VIDEO -0.2490
-2.0934 WEATHER -0.2490
-2.0934 YOUTUBE -0.2490

\2-grams:
-0.6021 <s> OPEN -0.0000
-1.4472 <s> PLAY 0.0000
-1.4472 <s> SEARCH 0.0000
-0.8451 <s> SHOW 0.0000
-1.4472 <s> TELL 0.0000
-0.3010 AND TIME 0.0000
-0.3010 BATTERY STATUS 0.0000
-0.3010 BITCOIN VALUE 0.0000
-0.3010 BROWSER </s> -0.3010
-0.3010 CURENCY </s> -0.3010
-0.3010 DATE AND 0.0000
-0.3010 EMAIL </s> -0.3010
-0.3010 FILE MANAGER 0.0000
-0.3010 GOOGLE </s> -0.3010
-0.3010 IMAGE </s> -0.3010
-0.3010 MANAGER </s> -0.3010
-0.3010 MUSIC PLAYER 0.0000
-1.1461 OPEN BROWSER 0.0000
-1.1461 OPEN EMAIL 0.0000
-1.1461 OPEN FILE 0.0000
-1.1461 OPEN GOOGLE 0.0000
-1.1461 OPEN IMAGE 0.0000
-1.1461 OPEN MUSIC 0.0000
-1.1461 OPEN YOUTUBE 0.0000
-0.3010 PLAY VIDEO 0.0000
-0.3010 PLAYER </s> -0.3010
-0.3010 SEARCH GOOGLE 0.0000
-0.9031 SHOW BATTERY 0.0000
-0.9031 SHOW BITCOIN 0.0000
-0.9031 SHOW DATE 0.0000
-0.9031 SHOW WEATHER 0.0000
-0.3010 STATUS </s> -0.3010
-0.3010 TELL CURENCY 0.0000
-0.3010 TIME </s> -0.3010
-0.3010 VALUE </s> -0.3010
-0.3010 VIDEO </s> -0.3010
-0.3010 WEATHER </s> -0.3010
-0.3010 YOUTUBE </s> -0.3010

\3-grams:
-1.1461 <s> OPEN BROWSER
-1.1461 <s> OPEN EMAIL
-1.1461 <s> OPEN FILE
-1.1461 <s> OPEN GOOGLE
-1.1461 <s> OPEN IMAGE
-1.1461 <s> OPEN MUSIC
-1.1461 <s> OPEN YOUTUBE
-0.3010 <s> PLAY VIDEO
-0.3010 <s> SEARCH GOOGLE
-0.9031 <s> SHOW BATTERY
-0.9031 <s> SHOW BITCOIN
-0.9031 <s> SHOW DATE
-0.9031 <s> SHOW WEATHER
-0.3010 <s> TELL CURENCY
-0.3010 AND TIME </s>
-0.3010 BATTERY STATUS </s>
-0.3010 BITCOIN VALUE </s>
-0.3010 DATE AND TIME
-0.3010 FILE MANAGER </s>
-0.3010 MUSIC PLAYER </s>
-0.3010 OPEN BROWSER </s>
-0.3010 OPEN EMAIL </s>
-0.3010 OPEN FILE MANAGER
-0.3010 OPEN GOOGLE </s>
-0.3010 OPEN IMAGE </s>
-0.3010 OPEN MUSIC PLAYER
-0.3010 OPEN YOUTUBE </s>
-0.3010 PLAY VIDEO </s>
-0.3010 SEARCH GOOGLE </s>
-0.3010 SHOW BATTERY STATUS
-0.3010 SHOW BITCOIN VALUE
-0.3010 SHOW DATE AND
-0.3010 SHOW WEATHER </s>
-0.3010 TELL CURENCY </s>

\end\
